{
    "w": [
        0.013302253609253967,
        -0.0035520628243830288,
        -0.007184099506957864,
        -0.003222077306418214,
        0.01372454283045954,
        0.004301360677345656,
        0.0034701646654866636,
        -0.0009315568813690334,
        0.012003586066384742,
        -0.007198003295343369,
        -0.011574055693927221,
        -0.0051001040046685375,
        -0.0026804042972798925,
        0.010434006377181504,
        0.0012101310785510577,
        0.0013931947669334477,
        -0.004764041477756109,
        -0.005155082646524534,
        0.005118414730532095,
        -0.016611312192253536,
        -0.04731700187767274,
        -0.011986337589405593,
        -0.010155406052945182,
        0.001277204770303797,
        -0.005610625546978554,
        -0.0006146538116809097,
        0.013114734585542465,
        -0.0022163999965414405,
        0.004259493071003817,
        -0.0016706753935977758,
        -0.010011873154553541,
        -0.03733272853332892,
        -0.010253420110984734,
        -0.008483252646328765,
        -0.003669342577268253,
        0.018957092936034314,
        -0.01556183885440987,
        -0.010866132050523447,
        -0.003370885236790855,
        -0.0024854140842762718,
        -0.002391243839156232,
        0.00015124939136512694,
        -0.0007163666559790727,
        -0.005070363742561312,
        -0.01535699002306501,
        -0.01657011156567023,
        0.000623359748715302,
        0.010447249688240845,
        0.01090084283350734,
        0.010188467090301856,
        -0.004273255780390173,
        -0.0022658473335468443,
        -0.0027424020281614503,
        -0.014373024212545715,
        0.022420840461563785,
        -0.025012990492541576,
        -0.008932855387683958,
        -0.01330627238399984,
        -0.020967879727322725,
        -0.006323812724076561,
        -0.007726029965397174,
        0.006745942792015569,
        0.011877511809871066,
        0.013295298995217308,
        0.0030093234199739527,
        0.0020861717925981793,
        0.005332891278158058,
        -0.0027165265782969072,
        -0.021405975139714428,
        -0.014451619736405519,
        -0.007647354940502282,
        0.015357207274064422,
        -0.011336479601595784,
        0.01086648715136107,
        0.01295061928431096,
        0.007442772344802506,
        0.009184519390146306,
        -0.008322219582169055,
        -0.004562943046721557,
        -0.005183398995086463,
        -0.011878740628162632,
        0.01293519758473849,
        0.011505963710078504,
        0.017350455189443892,
        0.008355201265658252,
        0.026610404034727253,
        0.0020472762844292447,
        0.005102392398839584,
        0.0021382513223215938,
        0.006726575462380424,
        -0.004166984916082583,
        -0.0020453324414688723,
        0.005070824226777404,
        0.003111729566626309,
        -0.028464815914048813,
        -0.038476661342429,
        -0.03193594839012803,
        -0.008658663487949525,
        0.003670992751722224,
        0.005209206916333642,
        0.004818696986376381,
        0.005202925915236634,
        0.010842333126902304,
        0.009070665226317942,
        -0.009016206495289225,
        -0.015431175093908678,
        -0.0027118637663079426,
        -0.002149838488548994,
        0.015147834734762,
        -0.004317583874581032,
        -0.017416811550447164,
        -0.0087969529467955,
        -0.008791190841293428,
        0.00022838121708446124,
        0.0026797037180585903,
        0.010548630591529218,
        0.018432484086588374,
        0.006078921978769358,
        -0.010698123252950609,
        -0.0007826979222045338,
        -0.010985485011588025,
        -0.02587326341563312,
        -0.00743714288614683,
        -0.0016300083825626643,
        0.0058408716579352316,
        0.002586941685876809,
        0.019734609304578044,
        0.01923126466499525,
        0.01131497055393993,
        -0.01755974637944746,
        -0.008002359856618568,
        -0.01318181347414793,
        -0.003984764458209611,
        0.0038801265567371956,
        0.015977765433490276,
        0.012841993186157197,
        0.006590498098375974,
        0.0006168517265905393,
        -0.008725030487767071,
        -0.033445250690419925,
        -0.0173841207138139,
        -0.006665533222076192,
        -0.005453279738958372,
        -0.004272016100003384,
        0.016739147795306053,
        -0.008028860773265478,
        -0.00405445770775259,
        -0.011714059472296867,
        -0.023165874416918086,
        -0.008273240859693942,
        -0.007632585565431782,
        0.004016324227841039,
        0.015592988268053887,
        0.011403968132071896,
        0.003214019188817474,
        -0.005350931887164734,
        -0.020394270663473435,
        -0.022129510400191066,
        -0.017070074341745567,
        -0.01474720646001515,
        0.0003986360680130474,
        0.01481575085199438,
        0.0173329125973396,
        3.938226291211322e-05,
        -0.019624079075583722,
        -0.014173694336932385,
        -0.03259654752309871,
        -0.010448210724462115,
        -0.0035826731556483082,
        0.006261111103341932,
        0.006065079243853688,
        -0.0019094189628958702,
        -0.008779633386438945,
        -0.027108579853120318,
        -0.026168311120272847,
        -0.025425094172533136,
        -0.01139240573911593,
        -0.006413501347481088,
        -0.0017952299516537096,
        0.006788819395296741,
        0.0018336126549911569,
        0.005413073355157394,
        -0.004704892944161543,
        -0.007925629125566047,
        -0.02730991893662349,
        -0.016885173063542425,
        -0.008545793986741046,
        0.004227589056654324,
        0.0015976082468114328,
        0.009171011780722438,
        0.0026490248098980373,
        0.005427974110473244,
        0.00170012602393399,
        0.00472915207137703,
        -0.0030043695187487174,
        -0.0009713672213536029,
        -0.0010678097678464837,
        0.0047479710586912915,
        0.003602807664719876,
        -0.001388217533531133,
        -0.01697177924211246,
        -0.030287223504274152,
        -0.021706561924474954,
        -0.002526201297996522,
        0.003679421090851065,
        0.007752386901969999,
        0.0046130669143167324,
        0.00753704769158503,
        -0.01463589753893757,
        -0.029443386165510788,
        -0.0190892190366867,
        0.0084495162445819,
        0.005714515626095817,
        0.003615492470260051,
        0.009339254662336316,
        0.007455641414708225,
        0.0235904322580609,
        0.002431597633403726,
        -0.00702536774406326,
        -0.020682245992304615,
        -0.018030247010756284,
        -0.01724783013924025,
        -0.0055597532673345995,
        0.003948545578168705,
        0.01782382244709879,
        0.023551438469439745,
        -0.019719229387789028,
        -0.012354474315202424,
        -0.013226913445578248,
        -0.03148121345475374,
        -0.023653858310808573,
        0.0029448132972902386,
        -0.003931477424885088,
        0.009908782638376579,
        0.01009601065015886,
        0.007618519898642262,
        0.0007708605323841766,
        -0.000569139559956966,
        0.015439085163961863,
        -0.00027800994757853914,
        0.0023437639201802085,
        -0.01038716413313523,
        0.0029168095206841826,
        -0.008676332319737412,
        0.012054367700329749,
        0.01886078552752224,
        0.003759060366974154,
        0.0017205417521495292,
        -0.0029491102716292517,
        -0.0006284417123936237,
        -0.025024078940141692,
        -0.025575751424185,
        0.020462791755562648,
        -0.0002496191347063359,
        -0.004378656109338408,
        -0.003993158353665649,
        -0.02523681850379944,
        -0.013105090115914209,
        -0.006913173127102823,
        -0.0046388532302543695,
        0.018530875546275638,
        -0.005586564337136224,
        -0.01255885960233627,
        -0.012339152182676116,
        -0.02050644138375901,
        -0.00737897613100813,
        -0.007734072393759561,
        -5.248697607385111e-05,
        -0.006942333236452214,
        0.004110731606488116,
        -0.007090800238074735,
        0.012414528827321192,
        0.019231151195526763,
        0.003993795562564628,
        -0.0022300774517134414,
        -0.0021111003179612453,
        -0.0038075482174200204,
        -0.017448896063172015,
        -0.016711434051103424,
        -0.018045337828425545,
        -0.0111247831628134,
        -0.012112815209547989,
        -0.004208003412713879,
        0.0030954521032526827,
        -0.0025243353593396023,
        0.008029418366220398,
        -0.003895988949210505,
        -0.02035408724213994,
        0.00528123090043664,
        0.027620227527222596,
        0.014195080920643477,
        -0.014847629121504724,
        0.014513554526956796,
        0.0035024986582357087,
        0.00026407038740217104,
        -0.0020951458100171294,
        0.004901709238765761,
        -0.0008959949573181802,
        -0.031242664512745932,
        -0.03977450403272087,
        -0.017890918214106932,
        0.008656786882056622,
        0.009252435468624753,
        -0.005930906395860802,
        0.009068202693015337,
        0.006563432764778554,
        -0.01627999891206855,
        -0.012990673872991465,
        -0.016343149427711978,
        -0.00843987699408899,
        -0.0026402600151413935,
        0.002670233414391987,
        0.011235749124352878,
        0.003407239167238174,
        -0.016710472862541792,
        -0.0019961832731496543,
        0.00021360989558161236,
        -0.0033768194189178757,
        -0.009337510363820911,
        0.012054173930664547,
        0.0066392077824275475,
        0.0073950907826656476,
        0.004155310714850202,
        0.0004559240260277875
    ],
    "b": 0.019999999999999997
}