{
    "w": [
        -0.10126962643880688,
        -0.008406686902560523,
        -0.06602629336248356,
        -0.056382527414371,
        -0.04706835167394274,
        -0.00985817671789846,
        -0.04056988477100276,
        -0.04907858993067293,
        -0.09233057929941424,
        0.024696693235455314,
        0.035228517022915184,
        -0.023834692991954398,
        -0.012317941143919597,
        0.04145168953537848,
        -0.03760871002373278,
        -0.10677471645820447,
        0.05854135098083191,
        -0.004505378339672461,
        -0.04132347277447934,
        0.05191695001485641,
        0.0358818865252033,
        0.015495176177665826,
        -0.017369914658388552,
        0.016143634279330854,
        -0.11555631275302858,
        -0.16113603396289022,
        -0.04800836638514738,
        0.03706590359797701,
        0.00489483946148539,
        0.0044123396777422386,
        0.027682791601563395,
        0.05975267280427943,
        0.013849621649569599,
        -0.01578182876005485,
        0.04669554510741136,
        -0.08100519129948225,
        0.13891711534506612,
        -0.09341957632659614,
        -0.015867477930896712,
        0.0253797257509234,
        -0.009017134081375389,
        0.035985320192139625,
        0.0565942388421945,
        0.19228999405572722,
        0.06659296227826417,
        0.043593748174316715,
        -0.09778001976337691,
        0.09117694300334733,
        0.08105429603210723,
        0.040117488331617324,
        0.07281989792932109,
        0.004918524085042009,
        0.04749674031950235,
        -0.015326656292018015,
        -0.06612190169107635,
        -0.023568089891341515,
        -0.13219626545833307,
        -0.037859132074174795,
        -0.021160027231303502,
        0.03426746766137967,
        -0.015869747063334216,
        0.023242196679802873,
        0.050476792828703765,
        -0.03977858713187743,
        0.10294159321347252,
        0.020096029954402184,
        0.013911025752804562,
        -0.03217878657596884,
        -0.05628672209059005,
        -0.0211195786969256,
        0.01718226715183846,
        -0.013211230409069685,
        -0.0050824916834244505,
        -0.03949545176283209,
        0.09884896551506017,
        -0.05813099649094511,
        -0.04600740872723463,
        -0.053306788187683196,
        -0.16814385712063995,
        0.09293739754866692,
        0.007296898096683435,
        0.12832040444609127,
        0.032550998550277654,
        0.01395928027369564,
        -0.037288026006763175,
        -0.09285442289547063,
        -0.0699049487029697,
        -0.13189211699545922,
        -0.07623336454798846,
        -0.010917176446582744,
        0.008730127519811504,
        0.011618770507311638,
        0.16591570653872623,
        -0.15057711344547897,
        -0.06401288213237422,
        0.0633722635925551,
        -0.019473873970582645,
        0.01977530328622379,
        0.13681597829054226,
        0.1064728870855447,
        0.09388178649987822,
        -0.09426981770525344,
        -0.07336639895072494,
        -0.08083050602726871,
        0.07567228791231173,
        0.019543699312635,
        0.05592093300947454,
        -0.13106701373726537,
        -0.005113873067642771,
        0.04733344752651192,
        0.06777783473000909,
        -0.0778609272392714,
        -0.013042445021710591,
        -0.07562057951429324,
        -0.08359205688221039,
        -0.08099303081775133,
        -0.007380156056115084,
        -0.1739865589524925,
        -0.11505685018528311,
        -0.009489102885709144,
        -0.0808028215833474,
        -0.07984428794225096,
        0.03596835267262577,
        -0.02063427146271124,
        0.004710823510933437,
        -0.0311669941065702,
        -0.18598284176590596,
        -0.021871698550057772,
        0.026581363782497647,
        0.041134905337457894,
        0.016137538361363113,
        -0.08477245262429278,
        -0.09124716354040174,
        -0.10565080160017715,
        -0.13081206501260567,
        -0.038425321705290116,
        -0.049223445619645645,
        -0.1201590390119236,
        -0.019579771435928706,
        -0.0049645653562038206,
        0.0979101505190556,
        -0.016931937062054203,
        0.06982577723428562,
        0.038454805449873675,
        -0.02003149773736368,
        -0.09170390810868412,
        0.06087204112054678,
        -0.04607061750652974,
        0.001039401885236657,
        0.010538106650415102,
        0.03611683102172947,
        0.03198049078525855,
        0.09286505631462205,
        0.08948517450244253,
        0.08550137245697442,
        0.1736076527959085,
        0.155930795032873,
        -0.09868510018486631,
        -0.006399092280844343,
        0.05929939626741998,
        -0.006288432683248857,
        0.1476871145205223,
        0.06639347579039168,
        0.11395703618063635,
        0.01899611249609734,
        0.14037305547481083,
        0.07347979076666888,
        0.04202355607227304,
        -0.05712587710047501,
        0.0418829279988131,
        0.09481370611683815,
        -0.011049782284317189,
        -0.06377832934595062,
        0.024088129832762206,
        0.07281390942785038,
        0.03430101292542531,
        0.00518960491353937,
        -0.05990807001990106,
        0.01986930263319664,
        0.0396519079713471,
        -0.049169768007431,
        0.03082196003390436,
        -0.05253283454931079,
        0.05563195029617418,
        0.06475724063534471,
        -0.0016176128319784766,
        0.09436362463020487,
        0.04024518901661622,
        0.07046133698349877,
        -0.016200776305861808,
        0.054827116308103996,
        -0.0841024062415272,
        -0.028234269623908403,
        -0.1303273671073839,
        0.016870727480522874,
        -0.08811869002147432,
        -0.1661138612397508,
        -0.07897335222048696,
        0.0683728025178425,
        0.03329771068456466,
        -0.03971254234511434,
        0.06743179701186364,
        0.07919308072177955,
        -0.07870725804821177,
        -0.08617250376028096,
        -0.10685820168731652,
        0.09446830269007478,
        0.027597759163199953,
        -0.11893885297796203,
        -0.011258577153057558,
        -0.034757820810568774,
        -0.06571087181691837,
        0.037034031460734695,
        -0.08141679144085856,
        0.00034162148487837385,
        0.07914878156296368,
        -0.06087948830281675,
        0.020177875880520446,
        -0.01050899038142461,
        -0.02028836422311997,
        -0.0003419369750190526,
        -0.055403683536951576,
        -0.009567201241651446,
        0.00847859007808438,
        -0.04171500789743732,
        0.15158537297611474,
        0.058752285306809426,
        0.07520283448229748,
        0.02332255507803893,
        0.09977802816956682,
        0.08647571151277589,
        -0.012398516320899944,
        -0.00204296236790924,
        -0.0014374147540365811,
        0.13102145114680752,
        -0.036789063155026724,
        -0.02347123501999704,
        0.031867196467203485,
        -0.1323322653782384,
        -0.038583599709454575,
        -0.024808983438447285,
        0.08489270463257981,
        -0.0044615862007049145,
        -0.17375141421871376,
        -0.16104011603198387,
        -0.12030356880518411,
        -0.07800496572258453,
        0.025423873698912303,
        0.023481405130382882,
        0.11360651872200833,
        -0.013516022234398406,
        -0.09528020008838212,
        0.0410486116179527,
        0.10467487085543326,
        0.127773642909915,
        0.08442973309121271,
        0.0090041663820557,
        0.0960090644474576,
        -0.04639906555223661,
        -0.09727322212086165,
        -0.04869252097887511,
        0.009192058329063002,
        -0.08976857237212243,
        -0.049294993510557106,
        0.10715651868508758,
        0.029255970339704618,
        0.17796570248231092,
        0.06293242203935279,
        0.06881369538979243,
        0.002937956200184999,
        -0.022730709628376644,
        0.060422464332475556,
        0.0489731740208299,
        -0.05292470270470062,
        -0.02771992200300133,
        -0.003982003316650662,
        0.04594076876939113,
        0.0024315332379778454,
        0.029772687255899655,
        -0.07756764057535293,
        0.15046867336013747,
        0.017741679346727324,
        -0.06473601757055292,
        -0.08160097358094731,
        0.04383920968939492,
        0.13173270991555341,
        0.12263975449143061,
        0.06726126983448921,
        0.03393798320212227,
        0.06545763106441882,
        -0.06957045227682102,
        -0.027771069939262816,
        -0.046360143608580984,
        -0.013260427484283355,
        -0.029824600634697163,
        -0.04776323825217332,
        -0.05670481295965146,
        -0.07313852401330223,
        0.08739091407551314,
        0.10708213215184514,
        -0.01691316978121904,
        -0.03789412332480424,
        0.06183255248623709,
        -0.06822275174613424,
        0.01336120269806429,
        0.05557475715249893,
        -0.03220412073460466,
        -0.04242544491717126,
        -0.06722654030750164,
        0.04121364754246315,
        -0.09160775549256073,
        0.001659211036326269,
        -0.009463506813148115,
        0.07770495747314499,
        0.1209799633397779,
        -0.1641137471847287,
        -0.18283817036081018,
        -0.12979951485613128,
        -0.025504810345864826,
        0.004625103699936517,
        -0.0004499841040797037,
        -0.05341706434194293,
        0.037927727909476516,
        0.01085592029039617
    ],
    "b": -0.11999999999999998
}